<?xml version="1.0"?>
<opencv_storage>
<cascade>
  <stageType>BOOST</stageType>
  <featureType>HAAR</featureType>
  <height>20</height>
  <width>20</width>
  <stageParams>
    <boostType>GAB</boostType>
    <minHitRate>9.9500000476837158e-01</minHitRate>
    <maxFalseAlarm>5.0000000000000000e-01</maxFalseAlarm>
    <weightTrimRate>9.4999999999999996e-01</weightTrimRate>
    <maxDepth>1</maxDepth>
    <maxWeakCount>100</maxWeakCount></stageParams>
  <featureParams>
    <maxCatCount>0</maxCatCount>
    <featSize>1</featSize>
    <mode>BASIC</mode></featureParams>
  <stageNum>8</stageNum>
  <stages>
    <!-- stage 0 -->
    <_>
      <maxWeakCount>2</maxWeakCount>
      <stageThreshold>-1.4287681877613068e-01</stageThreshold>
      <weakClassifiers>
        <_>
          <internalNodes>
            0 -1 12 8.0832093954086304e-02</internalNodes>
          <leafValues>
            -9.5331692695617676e-01 8.8865321874618530e-01</leafValues></_>
        <_>
          <internalNodes>
            0 -1 4 5.0280112773180008e-03</internalNodes>
          <leafValues>
            -7.9674160480499268e-01 8.1044012308120728e-01</leafValues></_></weakClassifiers></_>
    <!-- stage 1 -->
    <_>
      <maxWeakCount>2</maxWeakCount>
      <stageThreshold>-1.0598981380462646e-01</stageThreshold>
      <weakClassifiers>
        <_>
          <internalNodes>
            0 -1 16 1.3232013583183289e-01</internalNodes>
          <leafValues>
            -7.2605788707733154e-01 8.6126524209976196e-01</leafValues></_>
        <_>
          <internalNodes>
            0 -1 9 3.1325932592153549e-02</internalNodes>
          <leafValues>
            -9.6725505590438843e-01 6.3056296110153198e-01</leafValues></_></weakClassifiers></_>
    <!-- stage 2 -->
    <_>
      <maxWeakCount>4</maxWeakCount>
      <stageThreshold>-1.6412936151027679e-01</stageThreshold>
      <weakClassifiers>
        <_>
          <internalNodes>
            0 -1 26 3.9540296420454979e-03</internalNodes>
          <leafValues>
            -6.7178279161453247e-01 7.9276847839355469e-01</leafValues></_>
        <_>
          <internalNodes>
            0 -1 13 2.4272435903549194e-01</internalNodes>
          <leafValues>
            -5.9410077333450317e-01 7.6990556716918945e-01</leafValues></_>
        <_>
          <internalNodes>
            0 -1 2 9.7914715297520161e-04</internalNodes>
          <leafValues>
            -7.2035408020019531e-01 6.4841461181640625e-01</leafValues></_>
        <_>
          <internalNodes>
            0 -1 25 1.1593078961595893e-03</internalNodes>
          <leafValues>
            -8.6765295267105103e-01 4.5810189843177795e-01</leafValues></_></weakClassifiers></_>
    <!-- stage 3 -->
    <_>
      <maxWeakCount>3</maxWeakCount>
      <stageThreshold>-8.6035931110382080e-01</stageThreshold>
      <weakClassifiers>
        <_>
          <internalNodes>
            0 -1 19 3.0636129667982459e-04</internalNodes>
          <leafValues>
            -9.2870545387268066e-01 6.4374709129333496e-01</leafValues></_>
        <_>
          <internalNodes>
            0 -1 11 3.6464029550552368e-01</internalNodes>
          <leafValues>
            -6.5021622180938721e-01 6.6012418270111084e-01</leafValues></_>
        <_>
          <internalNodes>
            0 -1 24 -1.1792503297328949e-02</internalNodes>
          <leafValues>
            4.6010032296180725e-01 -8.5389024019241333e-01</leafValues></_></weakClassifiers></_>
    <!-- stage 4 -->
    <_>
      <maxWeakCount>4</maxWeakCount>
      <stageThreshold>-3.7944239377975464e-01</stageThreshold>
      <weakClassifiers>
        <_>
          <internalNodes>
            0 -1 18 4.0980256162583828e-03</internalNodes>
          <leafValues>
            -8.9297658205032349e-01 6.8220740556716919e-01</leafValues></_>
        <_>
          <internalNodes>
            0 -1 7 -1.3605053722858429e-01</internalNodes>
          <leafValues>
            7.0738142728805542e-01 -5.3452271223068237e-01</leafValues></_>
        <_>
          <internalNodes>
            0 -1 28 -8.4384195506572723e-03</internalNodes>
          <leafValues>
            6.7392295598983765e-01 -4.8738268017768860e-01</leafValues></_>
        <_>
          <internalNodes>
            0 -1 20 -2.4570990353822708e-04</internalNodes>
          <leafValues>
            -9.3202418088912964e-01 3.7413397431373596e-01</leafValues></_></weakClassifiers></_>
    <!-- stage 5 -->
    <_>
      <maxWeakCount>4</maxWeakCount>
      <stageThreshold>-6.3450402021408081e-01</stageThreshold>
      <weakClassifiers>
        <_>
          <internalNodes>
            0 -1 3 4.5784991234540939e-03</internalNodes>
          <leafValues>
            -6.4075064659118652e-01 7.0522004365921021e-01</leafValues></_>
        <_>
          <internalNodes>
            0 -1 21 3.9497967809438705e-03</internalNodes>
          <leafValues>
            -9.4330412149429321e-01 4.3642091751098633e-01</leafValues></_>
        <_>
          <internalNodes>
            0 -1 6 1.1775014922022820e-02</internalNodes>
          <leafValues>
            -8.4619057178497314e-01 3.7728011608123779e-01</leafValues></_>
        <_>
          <internalNodes>
            0 -1 5 1.4023852348327637e-01</internalNodes>
          <leafValues>
            -5.1149427890777588e-01 5.7227063179016113e-01</leafValues></_></weakClassifiers></_>
    <!-- stage 6 -->
    <_>
      <maxWeakCount>4</maxWeakCount>
      <stageThreshold>-7.5439685583114624e-01</stageThreshold>
      <weakClassifiers>
        <_>
          <internalNodes>
            0 -1 15 -1.6620069742202759e-02</internalNodes>
          <leafValues>
            5.8137470483779907e-01 -9.2359548807144165e-01</leafValues></_>
        <_>
          <internalNodes>
            0 -1 0 9.0199876576662064e-03</internalNodes>
          <leafValues>
            -6.5302562713623047e-01 4.9547928571701050e-01</leafValues></_>
        <_>
          <internalNodes>
            0 -1 17 4.8349089920520782e-03</internalNodes>
          <leafValues>
            -8.9588028192520142e-01 3.5598084330558777e-01</leafValues></_>
        <_>
          <internalNodes>
            0 -1 8 1.4682916924357414e-02</internalNodes>
          <leafValues>
            -9.6793812513351440e-01 2.1313430368900299e-01</leafValues></_></weakClassifiers></_>
    <!-- stage 7 -->
    <_>
      <maxWeakCount>6</maxWeakCount>
      <stageThreshold>-8.1257700920104980e-01</stageThreshold>
      <weakClassifiers>
        <_>
          <internalNodes>
            0 -1 14 9.5766652375459671e-03</internalNodes>
          <leafValues>
            5.9837180376052856e-01 -8.6503064632415771e-01</leafValues></_>
        <_>
          <internalNodes>
            0 -1 23 1.7074828792829067e-04</internalNodes>
          <leafValues>
            3.4743186831474304e-01 -9.4151872396469116e-01</leafValues></_>
        <_>
          <internalNodes>
            0 -1 1 1.0629747994244099e-02</internalNodes>
          <leafValues>
            -6.0500198602676392e-01 5.1134729385375977e-01</leafValues></_>
        <_>
          <internalNodes>
            0 -1 22 -2.9685051413252950e-04</internalNodes>
          <leafValues>
            -9.5334810018539429e-01 2.6392680406570435e-01</leafValues></_>
        <_>
          <internalNodes>
            0 -1 10 -1.1074440553784370e-02</internalNodes>
          <leafValues>
            7.3039186000823975e-01 -4.0919306874275208e-01</leafValues></_>
        <_>
          <internalNodes>
            0 -1 27 2.3130632936954498e-02</internalNodes>
          <leafValues>
            -6.8429487943649292e-01 4.4099473953247070e-01</leafValues></_></weakClassifiers></_></stages>
  <features>
    <_>
      <rects>
        <_>
          0 5 2 8 -1.</_>
        <_>
          1 5 1 8 2.</_></rects>
      <tilted>0</tilted></_>
    <_>
      <rects>
        <_>
          0 8 2 5 -1.</_>
        <_>
          1 8 1 5 2.</_></rects>
      <tilted>0</tilted></_>
    <_>
      <rects>
        <_>
          0 9 2 1 -1.</_>
        <_>
          1 9 1 1 2.</_></rects>
      <tilted>0</tilted></_>
    <_>
      <rects>
        <_>
          0 9 3 2 -1.</_>
        <_>
          1 9 1 2 3.</_></rects>
      <tilted>0</tilted></_>
    <_>
      <rects>
        <_>
          0 9 3 3 -1.</_>
        <_>
          1 9 1 3 3.</_></rects>
      <tilted>0</tilted></_>
    <_>
      <rects>
        <_>
          1 0 17 8 -1.</_>
        <_>
          1 4 17 4 2.</_></rects>
      <tilted>0</tilted></_>
    <_>
      <rects>
        <_>
          1 8 15 2 -1.</_>
        <_>
          6 8 5 2 3.</_></rects>
      <tilted>0</tilted></_>
    <_>
      <rects>
        <_>
          1 12 18 8 -1.</_>
        <_>
          1 16 18 4 2.</_></rects>
      <tilted>0</tilted></_>
    <_>
      <rects>
        <_>
          2 7 14 6 -1.</_>
        <_>
          9 7 7 6 2.</_></rects>
      <tilted>0</tilted></_>
    <_>
      <rects>
        <_>
          3 7 8 6 -1.</_>
        <_>
          7 7 4 6 2.</_></rects>
      <tilted>0</tilted></_>
    <_>
      <rects>
        <_>
          3 8 2 6 -1.</_>
        <_>
          3 10 2 2 3.</_></rects>
      <tilted>0</tilted></_>
    <_>
      <rects>
        <_>
          6 0 13 18 -1.</_>
        <_>
          6 6 13 6 3.</_></rects>
      <tilted>0</tilted></_>
    <_>
      <rects>
        <_>
          6 4 7 12 -1.</_>
        <_>
          6 8 7 4 3.</_></rects>
      <tilted>0</tilted></_>
    <_>
      <rects>
        <_>
          7 1 6 18 -1.</_>
        <_>
          7 7 6 6 3.</_></rects>
      <tilted>0</tilted></_>
    <_>
      <rects>
        <_>
          7 10 6 5 -1.</_>
        <_>
          9 10 2 5 3.</_></rects>
      <tilted>0</tilted></_>
    <_>
      <rects>
        <_>
          7 10 10 4 -1.</_>
        <_>
          12 10 5 4 2.</_></rects>
      <tilted>0</tilted></_>
    <_>
      <rects>
        <_>
          9 1 4 18 -1.</_>
        <_>
          9 7 4 6 3.</_></rects>
      <tilted>0</tilted></_>
    <_>
      <rects>
        <_>
          9 5 1 9 -1.</_>
        <_>
          9 8 1 3 3.</_></rects>
      <tilted>0</tilted></_>
    <_>
      <rects>
        <_>
          9 5 3 6 -1.</_>
        <_>
          9 7 3 2 3.</_></rects>
      <tilted>0</tilted></_>
    <_>
      <rects>
        <_>
          9 8 1 4 -1.</_>
        <_>
          9 10 1 2 2.</_></rects>
      <tilted>0</tilted></_>
    <_>
      <rects>
        <_>
          9 8 4 2 -1.</_>
        <_>
          11 8 2 2 2.</_></rects>
      <tilted>0</tilted></_>
    <_>
      <rects>
        <_>
          10 8 2 6 -1.</_>
        <_>
          10 10 2 2 3.</_></rects>
      <tilted>0</tilted></_>
    <_>
      <rects>
        <_>
          10 10 2 1 -1.</_>
        <_>
          11 10 1 1 2.</_></rects>
      <tilted>0</tilted></_>
    <_>
      <rects>
        <_>
          10 10 2 2 -1.</_>
        <_>
          11 10 1 2 2.</_></rects>
      <tilted>0</tilted></_>
    <_>
      <rects>
        <_>
          12 8 4 7 -1.</_>
        <_>
          14 8 2 7 2.</_></rects>
      <tilted>0</tilted></_>
    <_>
      <rects>
        <_>
          16 8 2 5 -1.</_>
        <_>
          17 8 1 5 2.</_></rects>
      <tilted>0</tilted></_>
    <_>
      <rects>
        <_>
          17 9 3 3 -1.</_>
        <_>
          18 9 1 3 3.</_></rects>
      <tilted>0</tilted></_>
    <_>
      <rects>
        <_>
          18 1 1 18 -1.</_>
        <_>
          18 7 1 6 3.</_></rects>
      <tilted>0</tilted></_>
    <_>
      <rects>
        <_>
          18 8 2 4 -1.</_>
        <_>
          19 8 1 4 2.</_></rects>
      <tilted>0</tilted></_></features></cascade>
</opencv_storage>
